{"type":"RNN","options":{"inputSize":9,"inputRange":9,"hiddenLayers":[20,20],"outputSize":9,"decayRate":0.999,"smoothEps":1e-8,"regc":0.000001,"clipval":5,"maxPredictionLength":100,"dataFormatter":{"values":[["2","21","42"],["75","69","79"]],"indexTable":{"2":0,"21":1,"42":2,"69":4,"75":3,"79":5,"stop-input":6,"start-output":7,"unrecognized":8},"characterTable":{"0":"2","1":"21","2":"42","3":"75","4":"69","5":"79","6":null,"7":null,"8":null},"characters":["2","21","42","75","69","79","stop-input","start-output","unrecognized"],"specialIndexes":[6,7,8]}},"input":{"rows":10,"columns":9,"weights":{"0":0.04611968621611595,"1":0.3617384135723114,"2":-0.43472322821617126,"3":-0.15804129838943481,"4":-0.016528787091374397,"5":-0.4259967803955078,"6":-0.04425904154777527,"7":-0.37942999601364136,"8":-0.17321743071079254,"9":-0.08139688521623611,"10":-0.1960187703371048,"11":0.4261341392993927,"12":0.34761279821395874,"13":0.0569462850689888,"14":0.4786151349544525,"15":0.10847032070159912,"16":0.21131429076194763,"17":0.29273608326911926,"18":-0.25913411378860474,"19":-0.1898573487997055,"20":0.35428687930107117,"21":0.20969142019748688,"22":-0.016226202249526978,"23":0.21582776308059692,"24":0.11281239986419678,"25":-0.0017610765062272549,"26":-0.025220127776265144,"27":0.7813618779182434,"28":0.389817476272583,"29":-0.14278154075145721,"30":-0.5799813866615295,"31":1.1464576721191406,"32":0.5926187038421631,"33":-1.4625225067138672,"34":-1.2689762115478516,"35":-0.9616666436195374,"36":-3.1081507205963135,"37":0.6729857921600342,"38":-3.423287868499756,"39":3.1500535011291504,"40":-1.9382343292236328,"41":-2.8054099082946777,"42":-2.9331390857696533,"43":3.983992576599121,"44":2.5923006534576416,"45":-2.9397590160369873,"46":3.1886403560638428,"47":-1.9052879810333252,"48":3.054931879043579,"49":-1.973209261894226,"50":-2.4587819576263428,"51":0.7375265955924988,"52":2.841032028198242,"53":2.522246837615967,"54":-2.5233912467956543,"55":0.25609275698661804,"56":-2.2575929164886475,"57":2.499473810195923,"58":-3.833122968673706,"59":-2.9513185024261475,"60":3.532829761505127,"61":2.7271933555603027,"62":2.914684534072876,"63":-1.2545788288116455,"64":-0.5220887064933777,"65":-1.3477777242660522,"66":0.8546969890594482,"67":-0.3840060532093048,"68":-0.5874060988426208,"69":0.619217038154602,"70":0.6831662654876709,"71":-1.922306776046753,"72":-0.513884961605072,"73":0.472319096326828,"74":-2.1137306690216064,"75":0.5095261931419373,"76":1.2992827892303467,"77":-1.0501021146774292,"78":-1.616720199584961,"79":0.7872072458267212,"80":0.09687718003988266,"81":0.4934455156326294,"82":-0.062241408973932266,"83":-0.2613687515258789,"84":-0.7454403638839722,"85":0.3712007999420166,"86":-0.48115238547325134,"87":-0.2256540209054947,"88":-0.26509013772010803,"89":-0.2252950519323349}},"hiddenLayers":[{"weight":{"rows":20,"columns":9,"weights":{"0":-0.8598529100418091,"1":0.09827828407287598,"2":-0.5866060853004456,"3":0.6372436285018921,"4":-1.9622834920883179,"5":0.01937228813767433,"6":-0.7192056179046631,"7":-0.3051932156085968,"8":0.652262806892395,"9":0.3680869936943054,"10":-0.25905248522758484,"11":0.46989375352859497,"12":-0.29408368468284607,"13":0.441999226808548,"14":0.2891746461391449,"15":0.21523016691207886,"16":-0.2945402264595032,"17":-0.41709545254707336,"18":-0.2917308807373047,"19":-0.5851254463195801,"20":-0.5023207664489746,"21":0.2208503633737564,"22":-0.41851872205734253,"23":-0.16982467472553253,"24":0.8053741455078125,"25":-0.2905100882053375,"26":0.7317715287208557,"27":0.1420564502477646,"28":-0.549028754234314,"29":0.15888479351997375,"30":-0.2175476849079132,"31":-0.32653847336769104,"32":0.42733970284461975,"33":0.07462219893932343,"34":0.28300702571868896,"35":-0.04818161949515343,"36":0.5315769910812378,"37":-0.2813783884048462,"38":-0.1184624582529068,"39":0.13094201683998108,"40":0.2983219623565674,"41":-0.3987579047679901,"42":0.284091055393219,"43":-0.2317514270544052,"44":0.23484104871749878,"45":-0.34217458963394165,"46":-0.512557327747345,"47":-0.3385498821735382,"48":0.12306051701307297,"49":-0.9095367789268494,"50":-0.22704467177391052,"51":0.6933649778366089,"52":-0.23503397405147552,"53":0.6602184176445007,"54":-0.4064773917198181,"55":0.14123621582984924,"56":-0.2116003930568695,"57":-0.29848724603652954,"58":1.457726001739502,"59":0.4341152310371399,"60":0.32462793588638306,"61":-0.21604421734809875,"62":-0.2416692078113556,"63":0.6187218427658081,"64":-0.3483651280403137,"65":0.057309187948703766,"66":-0.9375121593475342,"67":0.4289384186267853,"68":0.40884989500045776,"69":-0.20090480148792267,"70":-0.4994857907295227,"71":-0.3941386640071869,"72":0.36805808544158936,"73":-0.10682538896799088,"74":0.3611248731613159,"75":-0.26406729221343994,"76":0.34548062086105347,"77":0.43302127718925476,"78":0.41008156538009644,"79":0.09092715382575989,"80":-0.3726343810558319,"81":0.04476511478424072,"82":0.09822181612253189,"83":-0.05337550863623619,"84":-0.025895338505506516,"85":-0.04976143315434456,"86":0.20271140336990356,"87":-0.1836712658405304,"88":0.016696328297257423,"89":-0.09776269644498825,"90":2.5622568130493164,"91":0.8810161352157593,"92":-0.639165997505188,"93":-1.619853138923645,"94":-0.1957765370607376,"95":-0.676862359046936,"96":-2.5758347511291504,"97":-0.6520335078239441,"98":-1.2274234294891357,"99":0.18090027570724487,"100":-0.3425217568874359,"101":-0.27620160579681396,"102":0.349324107170105,"103":0.4805460572242737,"104":0.391889363527298,"105":-0.00826200284063816,"106":-0.1795468032360077,"107":0.36430707573890686,"108":0.1439630389213562,"109":-0.31784361600875854,"110":0.47752636671066284,"111":-0.30606609582901,"112":-0.06681454181671143,"113":0.4389512538909912,"114":-0.04604917764663696,"115":-0.3260529637336731,"116":-0.29582545161247253,"117":-0.5508449077606201,"118":0.2219635248184204,"119":0.08975651115179062,"120":0.07337302714586258,"121":-0.9749093055725098,"122":0.3545016050338745,"123":-1.0536952018737793,"124":0.21370641887187958,"125":0.359504371881485,"126":-0.6325250267982483,"127":1.4248766899108887,"128":-0.607413113117218,"129":0.631138265132904,"130":-0.7275847792625427,"131":-0.2317926436662674,"132":-0.6176789999008179,"133":0.6028695106506348,"134":0.668404757976532,"135":0.24478991329669952,"136":-0.18790720403194427,"137":0.034893639385700226,"138":-0.10535376518964767,"139":0.07875709980726242,"140":0.1826542168855667,"141":-0.16128630936145782,"142":-0.08675828576087952,"143":-0.1110960841178894,"144":0.21613477170467377,"145":-0.3528576195240021,"146":-0.24740776419639587,"147":-0.2793872356414795,"148":-0.2814880609512329,"149":0.317099392414093,"150":0.5381316542625427,"151":0.16796746850013733,"152":-0.24966861307621002,"153":-0.41740021109580994,"154":-0.46623796224594116,"155":0.3000340163707733,"156":0.3690991699695587,"157":0.9243743419647217,"158":0.33497217297554016,"159":0.20328152179718018,"160":-0.13983087241649628,"161":-0.1843484789133072,"162":0.5090038776397705,"163":0.005718641448765993,"164":0.4403446912765503,"165":-0.3900761008262634,"166":0.35780060291290283,"167":0.3648534119129181,"168":-0.4099242091178894,"169":0.15602229535579681,"170":-0.2766897678375244,"171":-0.4253986179828644,"172":-0.33530381321907043,"173":0.2904451787471771,"174":0.3402140140533447,"175":-0.17756451666355133,"176":-0.3546953499317169,"177":0.411263644695282,"178":0.3844810426235199,"179":0.30820244550704956}},"transition":{"rows":20,"columns":20,"weights":{"0":-0.3525741994380951,"1":0.012524222955107689,"2":-0.44590821862220764,"3":-0.2987833619117737,"4":-0.4026261866092682,"5":-0.41110116243362427,"6":-0.24706725776195526,"7":-0.5670764446258545,"8":-0.23157893121242523,"9":-1.6193300485610962,"10":-0.050832316279411316,"11":-0.4675470292568207,"12":-0.1392580270767212,"13":-0.01163796242326498,"14":-0.2568414509296417,"15":-0.16588714718818665,"16":-0.08515439182519913,"17":-0.18489636480808258,"18":-0.1972130835056305,"19":-0.4261288046836853,"20":-0.032917141914367676,"21":-0.34015876054763794,"22":0.3579590320587158,"23":0.2436736673116684,"24":-0.2717444896697998,"25":-0.3707909882068634,"26":-0.19921539723873138,"27":-0.2783357799053192,"28":0.2955120801925659,"29":-0.0496542789041996,"30":-0.2351260781288147,"31":-0.3062995374202728,"32":-0.370193213224411,"33":-0.0428742840886116,"34":-0.04841507598757744,"35":0.04386529326438904,"36":-0.23445352911949158,"37":-0.2988717257976532,"38":-0.2798934280872345,"39":-0.06493585556745529,"40":-0.2830011546611786,"41":0.3822771906852722,"42":-0.3160703778266907,"43":-0.19421590864658356,"44":-0.05341946706175804,"45":-0.10698709636926651,"46":-0.10213719308376312,"47":0.22415165603160858,"48":0.24057450890541077,"49":-0.83071368932724,"50":-0.0638466328382492,"51":-0.3792564570903778,"52":0.08108283579349518,"53":0.22662532329559326,"54":0.013150057755410671,"55":0.10414887964725494,"56":0.18325001001358032,"57":-0.10312939435243607,"58":0.314530611038208,"59":-1.6432130336761475,"60":-0.3048321604728699,"61":-0.011272543109953403,"62":-0.25055205821990967,"63":-0.04796157032251358,"64":-0.0016148356953635812,"65":0.03453290835022926,"66":-0.15331950783729553,"67":0.22509929537773132,"68":0.1747465431690216,"69":-0.24459058046340942,"70":-0.02444058284163475,"71":-0.39249035716056824,"72":0.27139580249786377,"73":0.33833011984825134,"74":0.2772294282913208,"75":-0.0017540749395266175,"76":0.18244123458862305,"77":-0.1657416820526123,"78":0.20443901419639587,"79":-2.198190450668335,"80":0.4062694013118744,"81":-0.368542343378067,"82":0.579301655292511,"83":0.4101143777370453,"84":0.6677306890487671,"85":0.6729702353477478,"86":0.014620269648730755,"87":0.47773197293281555,"88":0.3139827847480774,"89":-1.1329749822616577,"90":-0.04749996215105057,"91":-0.1878020465373993,"92":0.49612054228782654,"93":0.2762535810470581,"94":-0.25412648916244507,"95":0.05525939166545868,"96":0.3759565055370331,"97":-0.025773758068680763,"98":0.3775617778301239,"99":-1.086280345916748,"100":-0.07328535616397858,"101":-0.3497457206249237,"102":-0.22890593111515045,"103":-0.07749348878860474,"104":0.09583774209022522,"105":0.12931300699710846,"106":-0.10305817425251007,"107":0.38723286986351013,"108":0.274539977312088,"109":-1.2942262887954712,"110":-0.026562951505184174,"111":-0.22793102264404297,"112":0.2896624207496643,"113":0.31217482686042786,"114":-0.24332720041275024,"115":0.046383291482925415,"116":0.2953134775161743,"117":-0.1142159104347229,"118":0.37568822503089905,"119":-1.1456165313720703,"120":0.14257210493087769,"121":0.2826673984527588,"122":0.6892538666725159,"123":0.7524921894073486,"124":0.2706857919692993,"125":0.5549490451812744,"126":0.4089473485946655,"127":0.35758206248283386,"128":0.5895657539367676,"129":1.2908133268356323,"130":0.10019395500421524,"131":0.38187772035598755,"132":0.417090505361557,"133":0.1903141885995865,"134":-0.3342660069465637,"135":0.03879851847887039,"136":0.5575944185256958,"137":0.43330875039100647,"138":0.34720489382743835,"139":3.6198949813842773,"140":-0.012023120187222958,"141":-0.30695196986198425,"142":0.665032148361206,"143":0.3883402943611145,"144":0.6325691342353821,"145":0.6845602989196777,"146":0.03234020248055458,"147":0.5293665528297424,"148":0.2892085611820221,"149":-0.8762902021408081,"150":0.06585086137056351,"151":-0.20573139190673828,"152":0.40623196959495544,"153":0.24157604575157166,"154":-0.13375191390514374,"155":0.15245495736598969,"156":0.35147589445114136,"157":-0.10076501965522766,"158":0.34579747915267944,"159":-1.347500205039978,"160":0.009754677303135395,"161":-0.0033696640748530626,"162":0.18374590575695038,"163":-0.33790919184684753,"164":0.019970275461673737,"165":0.5973058342933655,"166":-0.02985604666173458,"167":-0.25627848505973816,"168":-0.37821412086486816,"169":-1.2104580402374268,"170":-0.015054069459438324,"171":-0.2890089750289917,"172":0.27493542432785034,"173":-0.35526636242866516,"174":0.3393092751502991,"175":0.06795980036258698,"176":0.362188458442688,"177":-0.16589294373989105,"178":-0.2569752633571625,"179":-1.876523494720459,"180":-0.06345891207456589,"181":-0.07086636871099472,"182":0.20292459428310394,"183":1.5749309062957764,"184":-0.08249085396528244,"185":-0.03173116222023964,"186":0.16827835142612457,"187":-0.04862847924232483,"188":0.3856031894683838,"189":-0.27910399436950684,"190":-0.00020539542310871184,"191":0.29552048444747925,"192":0.41941824555397034,"193":0.06810369342565536,"194":0.25039443373680115,"195":-0.08578122407197952,"196":0.1217750683426857,"197":-0.20669789612293243,"198":-0.3391171097755432,"199":0.5847313404083252,"200":0.17700587213039398,"201":0.35425928235054016,"202":0.32466718554496765,"203":0.5883182287216187,"204":-0.1907639056444168,"205":-0.049487922340631485,"206":0.06704486906528473,"207":-0.049978479743003845,"208":1.2129693031311035,"209":-0.5042793154716492,"210":0.3942245841026306,"211":0.3632538616657257,"212":0.053825743496418,"213":-0.05191227048635483,"214":-0.0952775627374649,"215":-0.020967848598957062,"216":0.15631648898124695,"217":0.37716037034988403,"218":0.03072662651538849,"219":-0.6048025488853455,"220":-0.0016551058506593108,"221":0.2635529041290283,"222":0.35528165102005005,"223":0.29366543889045715,"224":0.11612768471240997,"225":0.11602728813886642,"226":0.3613705039024353,"227":0.09542302787303925,"228":0.468837171792984,"229":0.7983931303024292,"230":-0.05496497079730034,"231":0.3699509799480438,"232":0.058174241334199905,"233":0.0227160956710577,"234":-0.17310647666454315,"235":-0.07193344831466675,"236":0.13081206381320953,"237":0.3686140775680542,"238":0.07849333435297012,"239":1.950622797012329,"240":0.6229178309440613,"241":-0.3001636862754822,"242":0.50705486536026,"243":0.35008594393730164,"244":0.6621397137641907,"245":0.6205200552940369,"246":-0.08896860480308533,"247":0.4933643341064453,"248":0.259485125541687,"249":-0.917814314365387,"250":-0.07487699389457703,"251":-0.22172591090202332,"252":0.4073423445224762,"253":0.21427638828754425,"254":-0.3010789453983307,"255":0.09447279572486877,"256":0.36187654733657837,"257":-0.09845691174268723,"258":0.29677093029022217,"259":-1.2431511878967285,"260":-0.32700273394584656,"261":-0.05387924239039421,"262":-0.15332789719104767,"263":-0.1881161332130432,"264":-0.41123273968696594,"265":-0.35929322242736816,"266":-0.18911829590797424,"267":-0.46459829807281494,"268":-0.39285847544670105,"269":-1.1317676305770874,"270":-0.02209668792784214,"271":-0.08890331536531448,"272":-0.3854515850543976,"273":-0.36811310052871704,"274":-0.032764460891485214,"275":-0.0025741944555193186,"276":-0.31632351875305176,"277":-0.5138288736343384,"278":-0.5028879642486572,"279":-0.15532296895980835,"280":0.1589433252811432,"281":0.23674210906028748,"282":0.5171112418174744,"283":0.485198974609375,"284":0.39168688654899597,"285":0.3648471236228943,"286":0.5201594829559326,"287":0.31273284554481506,"288":0.32915470004081726,"289":0.506808340549469,"290":0.42354944348335266,"291":0.5575053095817566,"292":0.2864040434360504,"293":0.36803311109542847,"294":0.24112901091575623,"295":-0.019609825685620308,"296":0.34094369411468506,"297":0.4437485635280609,"298":0.4074418246746063,"299":0.45808324217796326,"300":-0.35063520073890686,"301":0.0432422012090683,"302":-0.2790781259536743,"303":-0.22942741215229034,"304":-0.3724275231361389,"305":-0.3006598949432373,"306":-0.3457144498825073,"307":-0.18878477811813354,"308":-0.03416930511593819,"309":-0.014586098492145538,"310":-0.04572109133005142,"311":-0.23891498148441315,"312":-0.10480844974517822,"313":0.03006625361740589,"314":-0.1779085099697113,"315":0.027981813997030258,"316":-0.25262507796287537,"317":-0.10309682041406631,"318":-0.10475950688123703,"319":0.0012895771069452167,"320":0.618212878704071,"321":-0.32921284437179565,"322":-0.005568518768996,"323":0.3234819769859314,"324":0.6513053178787231,"325":-0.11218596249818802,"326":-0.10868050158023834,"327":0.47696444392204285,"328":0.25931206345558167,"329":-1.3298479318618774,"330":-0.016168318688869476,"331":-0.20955777168273926,"332":0.41044872999191284,"333":0.25610047578811646,"334":-0.15485651791095734,"335":0.023089943453669548,"336":0.29451245069503784,"337":-0.133479505777359,"338":0.32667386531829834,"339":-1.4445202350616455,"340":0.009478369727730751,"341":0.31935974955558777,"342":0.165843203663826,"343":0.3256247639656067,"344":0.014521551318466663,"345":0.194065660238266,"346":0.2650129497051239,"347":0.10864166915416718,"348":0.26520898938179016,"349":1.912050724029541,"350":0.08216141909360886,"351":0.45375218987464905,"352":0.0811842605471611,"353":0.13864651322364807,"354":-0.23012834787368774,"355":-0.04941045492887497,"356":0.12295398861169815,"357":0.2399289458990097,"358":0.16063596308231354,"359":2.8218019008636475,"360":0.4321574866771698,"361":-0.2763984501361847,"362":0.5124655365943909,"363":0.27587831020355225,"364":0.5558987259864807,"365":0.6023814678192139,"366":0.018564725294709206,"367":0.5100157856941223,"368":0.30302339792251587,"369":-1.2589895725250244,"370":-0.05424796789884567,"371":-0.18368187546730042,"372":0.35138997435569763,"373":0.24919450283050537,"374":-0.16367563605308533,"375":0.07243133336305618,"376":0.3051917254924774,"377":-0.08241815865039825,"378":0.04327552393078804,"379":-1.908055067062378,"380":-0.04413430020213127,"381":-0.1310369372367859,"382":-0.090570367872715,"383":-0.2237243801355362,"384":0.05192776396870613,"385":-0.04219190776348114,"386":-0.28282052278518677,"387":-0.02700250968337059,"388":-0.8970075249671936,"389":0.25799983739852905,"390":-0.02615515887737274,"391":-0.33446547389030457,"392":-0.007283326704055071,"393":-0.02777424454689026,"394":0.06463146209716797,"395":-0.07054360210895538,"396":0.0059661646373569965,"397":-0.43677082657814026,"398":-0.135604590177536,"399":-0.7814930081367493}},"bias":{"rows":20,"columns":1,"weights":{"0":0.877330482006073,"1":-0.30343401432037354,"2":0.24961984157562256,"3":-0.002533738035708666,"4":0.012269644066691399,"5":0.2054099440574646,"6":-0.23204274475574493,"7":-0.004147380590438843,"8":0,"9":-0.0053312345407903194,"10":0.28029677271842957,"11":-0.2612980604171753,"12":-0.3142535388469696,"13":0.5984398126602173,"14":-0.21860283613204956,"15":0,"16":-0.1037205308675766,"17":-0.21275080740451813,"18":-0.31190839409828186,"19":-0.1308824121952057}}},{"weight":{"rows":20,"columns":20,"weights":{"0":-0.3027627170085907,"1":0.029444467276334763,"2":-0.559555172920227,"3":-0.4459487199783325,"4":0.27714383602142334,"5":-0.4259055554866791,"6":-0.17608849704265594,"7":0.273324579000473,"8":-0.0006858163978904486,"9":0.6064009070396423,"10":-0.8714177012443542,"11":-0.43904435634613037,"12":0.27144578099250793,"13":-0.3457060754299164,"14":0.7718720436096191,"15":-0.025249188765883446,"16":0.1760481297969818,"17":-0.37870219349861145,"18":0.22580429911613464,"19":-2.0736241340637207,"20":-0.0024121038150042295,"21":0.08260635286569595,"22":-0.13988061249256134,"23":-0.03825285658240318,"24":-0.05530223622918129,"25":-0.10006982088088989,"26":0.01329596433788538,"27":-0.0061243693344295025,"28":-0.26127323508262634,"29":0.046022940427064896,"30":0.0426347516477108,"31":-0.060320474207401276,"32":-0.02004392072558403,"33":0.0715695321559906,"34":0.0030175906140357256,"35":0.0655161663889885,"36":-0.0895664393901825,"37":-0.16485626995563507,"38":0.03247426077723503,"39":-0.0828125923871994,"40":-0.5624417662620544,"41":-0.07403507828712463,"42":-0.5221350789070129,"43":-0.04972836375236511,"44":-0.3610895276069641,"45":-0.5960641503334045,"46":-0.050656918436288834,"47":-0.3264622390270233,"48":-0.22365276515483856,"49":-0.3073524534702301,"50":0.07595320791006088,"51":-0.03595946356654167,"52":-0.25749868154525757,"53":-0.2984524071216583,"54":0.03999442607164383,"55":-0.33155694603919983,"56":-0.0760357677936554,"57":0.011026285588741302,"58":-0.23998907208442688,"59":0.013167568482458591,"60":0.4176032841205597,"61":0.06862296164035797,"62":0.16477665305137634,"63":0.13151299953460693,"64":0.6070700883865356,"65":-0.07127758115530014,"66":-0.40511682629585266,"67":0.12867558002471924,"68":-0.1498340219259262,"69":0.9463697671890259,"70":-0.045952409505844116,"71":-0.7656866312026978,"72":-0.1622343361377716,"73":-0.7353662252426147,"74":0.0017944058636203408,"75":0.3519918918609619,"76":-0.6416034698486328,"77":-0.3051813244819641,"78":0.37989291548728943,"79":0.1256822645664215,"80":-2.3304178714752197,"81":-0.37686628103256226,"82":-0.07244730740785599,"83":-0.0775659903883934,"84":0.5394654870033264,"85":0.5911458134651184,"86":-0.11826062202453613,"87":0.2656749188899994,"88":-0.1246255412697792,"89":0.17870087921619415,"90":-1.1242735385894775,"91":-0.27397799491882324,"92":0.6202014684677124,"93":-1.9618752002716064,"94":-0.2147408425807953,"95":-0.21949973702430725,"96":0.503144383430481,"97":-0.1998177319765091,"98":0.3980002701282501,"99":-0.8887233734130859,"100":-0.3328382670879364,"101":-0.012508832849562168,"102":-0.3834456503391266,"103":-0.33207830786705017,"104":-0.6808561682701111,"105":-0.3640287220478058,"106":-0.30470553040504456,"107":-0.2383974939584732,"108":-0.24725328385829926,"109":-0.004287704825401306,"110":-0.057877566665410995,"111":-0.3598173260688782,"112":-0.31712865829467773,"113":-0.6744254231452942,"114":-0.15363681316375732,"115":0.022113360464572906,"116":-0.3908018469810486,"117":-0.07676370441913605,"118":-0.3761630356311798,"119":-0.3130654990673065,"120":1.1710299253463745,"121":-0.32923009991645813,"122":-0.09632778912782669,"123":0.012076608836650848,"124":-0.048447173088788986,"125":0.04464632272720337,"126":0.23516210913658142,"127":-0.019420934841036797,"128":-0.0615655854344368,"129":-0.5822610259056091,"130":1.1424107551574707,"131":0.26102980971336365,"132":0.06969613581895828,"133":1.9629364013671875,"134":-0.20163193345069885,"135":-0.01278102956712246,"136":-0.04070037230849266,"137":0.23815983533859253,"138":0.0248244758695364,"139":1.6810566186904907,"140":-0.29160797595977783,"141":-0.024725785478949547,"142":-0.49285098910331726,"143":-0.19238318502902985,"144":-0.6044743061065674,"145":-0.6574715971946716,"146":0.04464483633637428,"147":-0.6303195953369141,"148":-0.2385263592004776,"149":-0.2760540544986725,"150":-0.46913981437683105,"151":0.009546889923512936,"152":-0.30885767936706543,"153":-0.10578642785549164,"154":0.10067503154277802,"155":-0.28933167457580566,"156":-0.3100302219390869,"157":0.002717701019719243,"158":-0.13141784071922302,"159":-0.04868173599243164,"160":-0.06420586258172989,"161":-0.08524329215288162,"162":-0.07408230751752853,"163":-0.012930757366120815,"164":-0.12017699331045151,"165":0.005315510090440512,"166":-0.06258980929851532,"167":-0.038457706570625305,"168":-0.13774335384368896,"169":-0.0186926256865263,"170":-0.07724002003669739,"171":-0.03834056109189987,"172":0.030619611963629723,"173":-0.03917323425412178,"174":-0.09994880110025406,"175":-0.15771877765655518,"176":0.008695172145962715,"177":-0.061847832053899765,"178":0.059342749416828156,"179":-0.05638149380683899,"180":-0.27537164092063904,"181":-0.009977462701499462,"182":-0.3200928866863251,"183":-0.27230507135391235,"184":-0.33648306131362915,"185":-0.3779529929161072,"186":0.019984180107712746,"187":-0.27296286821365356,"188":-0.1187419444322586,"189":0.0013544016983360052,"190":-0.16245076060295105,"191":-0.052161816507577896,"192":-0.27468469738960266,"193":0.022644631564617157,"194":-0.01380256935954094,"195":0.10026697814464569,"196":-0.28044575452804565,"197":-0.056240376085042953,"198":-0.17439481616020203,"199":-0.034435417503118515,"200":-1.3104479312896729,"201":-0.40039268136024475,"202":-0.08948040008544922,"203":-0.06495849788188934,"204":0.616917610168457,"205":0.04227924719452858,"206":-0.060523200780153275,"207":0.29048505425453186,"208":0.10207197815179825,"209":-0.2803386151790619,"210":-0.7961388230323792,"211":-0.18269331753253937,"212":0.6650435924530029,"213":-1.4646636247634888,"214":-0.4554271101951599,"215":0.01716131903231144,"216":0.26000767946243286,"217":-0.1817668378353119,"218":0.22466924786567688,"219":-1.1358782052993774,"220":1.0145037174224854,"221":-0.32207998633384705,"222":-0.05457160994410515,"223":0.10079611837863922,"224":-0.06730636209249496,"225":-0.019523106515407562,"226":0.32469528913497925,"227":0.12567582726478577,"228":-0.07273907959461212,"229":-0.09680018573999405,"230":1.044177532196045,"231":0.23325416445732117,"232":0.12715782225131989,"233":1.9180338382720947,"234":-0.5427966117858887,"235":-0.07009781897068024,"236":0.002924097701907158,"237":0.20834550261497498,"238":0.07458499819040298,"239":2.8749334812164307,"240":-0.05303039029240608,"241":0.1137886568903923,"242":-0.0454280786216259,"243":-0.2814725339412689,"244":-0.3729969561100006,"245":0.058844514191150665,"246":-0.4177094101905823,"247":-0.2549341917037964,"248":-0.2410924732685089,"249":0.08765041083097458,"250":-0.20392072200775146,"251":-0.26566898822784424,"252":-0.3175966739654541,"253":-0.040184784680604935,"254":0.06614077091217041,"255":0.045157767832279205,"256":-0.38566672801971436,"257":-0.2786054313182831,"258":-0.2964087724685669,"259":0.021106835454702377,"260":-0.352187842130661,"261":0.00575036508962512,"262":-0.35331106185913086,"263":-0.25439074635505676,"264":0.18431395292282104,"265":-0.12525376677513123,"266":-0.42626968026161194,"267":0.31655529141426086,"268":-0.25999715924263,"269":-0.008058592677116394,"270":-1.7014713287353516,"271":-0.5672745108604431,"272":0.24683955311775208,"273":-0.2952243685722351,"274":-0.04221118241548538,"275":0.05219254270195961,"276":0.1565406620502472,"277":-0.7006439566612244,"278":0.24852067232131958,"279":-0.4487774968147278,"280":0.7096620798110962,"281":-0.3140741288661957,"282":-0.14423270523548126,"283":0.02593555487692356,"284":0.0018472301308065653,"285":-0.03478827327489853,"286":0.2572394013404846,"287":-0.025967802852392197,"288":0.07457222044467926,"289":-1.0836669206619263,"290":0.9002164006233215,"291":0.14919160306453705,"292":0.02723323367536068,"293":1.3105186223983765,"294":-0.27628013491630554,"295":0.029454393312335014,"296":0.04110046476125717,"297":0.10376715660095215,"298":-0.017991332337260246,"299":3.085698127746582,"300":-1.5711352825164795,"301":-0.31648141145706177,"302":-0.16306541860103607,"303":-0.6264532804489136,"304":0.6008370518684387,"305":-0.0700884535908699,"306":-0.06268299371004105,"307":0.5905299186706543,"308":0.21295329928398132,"309":-0.5107468366622925,"310":-0.9784427881240845,"311":-0.22145383059978485,"312":0.4023297131061554,"313":-1.8685823678970337,"314":-0.2013237625360489,"315":0.17227399349212646,"316":0.1506805568933487,"317":-0.17483356595039368,"318":0.4352923333644867,"319":-1.0678715705871582,"320":0.1277417540550232,"321":-0.04050348699092865,"322":-1.336503267288208,"323":0.18899306654930115,"324":0.09291425347328186,"325":-0.8491200804710388,"326":0.07004311680793762,"327":-0.36871179938316345,"328":0.4257848560810089,"329":-0.8337705731391907,"330":-0.29678648710250854,"331":-0.15332747995853424,"332":-0.5956966280937195,"333":0.4940563142299652,"334":0.40543460845947266,"335":-0.23390968143939972,"336":0.2660447657108307,"337":-0.30822834372520447,"338":0.155922532081604,"339":2.188683271408081,"340":-0.07341980934143066,"341":-0.064730703830719,"342":-0.4669807255268097,"343":-0.3170435130596161,"344":-0.13056400418281555,"345":-0.06893070042133331,"346":-0.1774827092885971,"347":0.0857061967253685,"348":-0.059267930686473846,"349":-0.049595192074775696,"350":-0.08268015086650848,"351":-0.32411298155784607,"352":0.012058096937835217,"353":0.026844531297683716,"354":-0.3384057283401489,"355":-0.12070462852716446,"356":-0.09188161790370941,"357":0.004200080409646034,"358":-0.012982746586203575,"359":-0.3151567876338959,"360":-1.2684725522994995,"361":-0.17418694496154785,"362":-0.5907413959503174,"363":-0.022835969924926758,"364":-0.5696930885314941,"365":-0.6037132143974304,"366":0.26258978247642517,"367":-0.559807300567627,"368":-0.8155611157417297,"369":-0.18971654772758484,"370":-0.018286002799868584,"371":0.3539069592952728,"372":-0.5082324743270874,"373":-1.0185149908065796,"374":0.41128894686698914,"375":-0.2944849729537964,"376":-0.05473227798938751,"377":-0.03548288345336914,"378":-0.7013875842094421,"379":-1.3164118528366089,"380":0.24842345714569092,"381":0.014581119641661644,"382":-0.08832612633705139,"383":0.32021671533584595,"384":-0.7590054273605347,"385":-0.22002451121807098,"386":-0.35191038250923157,"387":-0.8501890301704407,"388":-0.2688712775707245,"389":-0.03125389292836189,"390":-0.37198153138160706,"391":-0.31138160824775696,"392":-0.2842749357223511,"393":-0.5303807854652405,"394":-0.3754534125328064,"395":-0.062177110463380814,"396":-0.2216726690530777,"397":-0.030961398035287857,"398":-0.2726583778858185,"399":-0.30414339900016785}},"transition":{"rows":20,"columns":20,"weights":{"0":0.32536810636520386,"1":0.3203829228878021,"2":0.01727658323943615,"3":0.7175121903419495,"4":0.39222919940948486,"5":0.036304593086242676,"6":-0.06731714308261871,"7":-0.3018687963485718,"8":0.04102541506290436,"9":-0.032572612166404724,"10":0.2783292531967163,"11":-0.11675987392663956,"12":0.07707079499959946,"13":-0.011126132681965828,"14":-0.4368535876274109,"15":0.27292630076408386,"16":-0.015819886699318886,"17":-0.008237642236053944,"18":-0.07195201516151428,"19":-0.055694807320833206,"20":0.03823108971118927,"21":-0.258484810590744,"22":0.04020621255040169,"23":0.05248606204986572,"24":0.037651244550943375,"25":0.06977999210357666,"26":-0.09501069039106369,"27":0.04306177794933319,"28":0.055623337626457214,"29":0.07468374818563461,"30":-0.0746924877166748,"31":0.02938031405210495,"32":-0.036068834364414215,"33":-0.105758436024189,"34":-0.036955058574676514,"35":0.010987875051796436,"36":-0.0770094022154808,"37":-0.0060597751289606094,"38":-0.04185415059328079,"39":0.00536707416176796,"40":-0.0038990499451756477,"41":0.030667712911963463,"42":-0.28323113918304443,"43":-0.1279844343662262,"44":-0.21884848177433014,"45":-0.058653563261032104,"46":0.008785567246377468,"47":-0.24538666009902954,"48":-0.030258409678936005,"49":-0.1254931539297104,"50":-0.2547365725040436,"51":0.029926616698503494,"52":0.057677533477544785,"53":-0.016426878049969673,"54":0.004497793968766928,"55":-0.061133336275815964,"56":-0.322831392288208,"57":-0.07839073240756989,"58":-0.2475658655166626,"59":0.06611061841249466,"60":-0.2726464867591858,"61":0.024538598954677582,"62":0.4230615496635437,"63":-0.10732968896627426,"64":-0.003945639356970787,"65":-0.030270198360085487,"66":-0.0665581226348877,"67":0.2454344779253006,"68":-0.02141399309039116,"69":0.33291035890579224,"70":0.03357422351837158,"71":-0.11887060850858688,"72":-0.022571174427866936,"73":-0.09647292643785477,"74":-0.2529241740703583,"75":-0.12159830331802368,"76":0.7776455879211426,"77":-0.04421013593673706,"78":0.484118789434433,"79":-0.25521120429039,"80":0.4123266339302063,"81":-0.3598378002643585,"82":0.5610648989677429,"83":0.46423372626304626,"84":0.3147156238555908,"85":-0.11776570975780487,"86":-0.07850363105535507,"87":-0.015336100943386555,"88":0.0348300077021122,"89":0.22575506567955017,"90":0.5118220448493958,"91":-0.09152426570653915,"92":-0.24125820398330688,"93":0.11506707221269608,"94":-0.10925193876028061,"95":0.47963640093803406,"96":0.8219978213310242,"97":-0.06401289254426956,"98":0.7840052247047424,"99":0.08323565125465393,"100":-0.21184514462947845,"101":-0.06733439117670059,"102":0.055637914687395096,"103":-0.3264951705932617,"104":-0.37607112526893616,"105":0.038525182753801346,"106":-0.34678760170936584,"107":-0.0045432779006659985,"108":-0.016146186739206314,"109":0.021179398521780968,"110":-0.26547178626060486,"111":-0.2440880984067917,"112":0.06867990642786026,"113":-0.08105387538671494,"114":-0.35229673981666565,"115":-0.24734176695346832,"116":-0.04228280484676361,"117":0.033181238919496536,"118":-0.052622586488723755,"119":-0.21729858219623566,"120":-0.03278420493006706,"121":0.3461967706680298,"122":-0.07380565255880356,"123":-0.2310279756784439,"124":0.054644886404275894,"125":-0.3232171833515167,"126":0.33022645115852356,"127":-0.04878665879368782,"128":0.01292489655315876,"129":0.047639522701501846,"130":0.08436958491802216,"131":0.24344377219676971,"132":0.15362653136253357,"133":0.0696154236793518,"134":0.24808284640312195,"135":0.053381938487291336,"136":1.415578842163086,"137":-0.0016030254773795605,"138":-0.024805543944239616,"139":-0.03857604041695595,"140":-0.07641368359327316,"141":-0.024067509919404984,"142":-0.2411050647497177,"143":-0.1407795548439026,"144":-0.2467861771583557,"145":0.05473941192030907,"146":-0.05772887170314789,"147":-0.30381062626838684,"148":0.021947495639324188,"149":-0.31137409806251526,"150":-0.24492575228214264,"151":-0.03537758067250252,"152":0.029354648664593697,"153":-0.05805128440260887,"154":-0.033160559833049774,"155":-0.11795968562364578,"156":-0.3177679479122162,"157":-0.021125400438904762,"158":-0.38701263070106506,"159":0.059948474168777466,"160":-0.029703659936785698,"161":0.025683755055069923,"162":-0.013138597831130028,"163":-0.025797586888074875,"164":0.016165778040885925,"165":-0.0010129300644621253,"166":0.012568533420562744,"167":0.03346557915210724,"168":0.07221104204654694,"169":0.07697103917598724,"170":0.067978136241436,"171":-0.03021080046892166,"172":-0.0536096952855587,"173":-0.04206183925271034,"174":-0.06043237820267677,"175":0.006428815890103579,"176":0.020374957472085953,"177":-0.07364083081483841,"178":0.00604841485619545,"179":-0.08661317080259323,"180":0.05711742863059044,"181":-0.052530571818351746,"182":-0.2833544909954071,"183":-0.24017924070358276,"184":-0.15487231314182281,"185":-0.000273451762041077,"186":0.04549676552414894,"187":-0.26645198464393616,"188":-0.01771564967930317,"189":-0.16147729754447937,"190":-0.21188418567180634,"191":0.06097569316625595,"192":0.01490474957972765,"193":-0.07260707765817642,"194":-0.04784637317061424,"195":-0.09813160449266434,"196":-0.3031461238861084,"197":-0.007271243259310722,"198":-0.2992052733898163,"199":-0.0356917679309845,"200":0.3505019545555115,"201":-0.32355815172195435,"202":0.43762853741645813,"203":0.08317830413579941,"204":0.45111581683158875,"205":0.08481065928936005,"206":-0.0985935851931572,"207":0.020910250023007393,"208":0.02477414906024933,"209":0.18913139402866364,"210":0.6115055680274963,"211":-0.1425536572933197,"212":-0.26759257912635803,"213":0.03132889047265053,"214":-0.20325316488742828,"215":0.3893432319164276,"216":0.2981889545917511,"217":0.06818123906850815,"218":0.27901676297187805,"219":0.16647525131702423,"220":0.03736642003059387,"221":-0.28134873509407043,"222":-0.031206222251057625,"223":0.6437081098556519,"224":0.07400286942720413,"225":-0.2551458179950714,"226":0.26043882966041565,"227":-0.04848714545369148,"228":-0.0645662397146225,"229":0.005706116557121277,"230":0.06544055044651031,"231":0.26798322796821594,"232":0.21573907136917114,"233":-0.025351138785481453,"234":0.24498726427555084,"235":-0.021400758996605873,"236":0.33469730615615845,"237":0.013336758129298687,"238":-0.32282450795173645,"239":0.28763508796691895,"240":-0.07081571221351624,"241":0.05500563979148865,"242":-0.038509588688611984,"243":-0.050675004720687866,"244":-0.3401229679584503,"245":-0.05134633183479309,"246":-0.2760598659515381,"247":-0.0018292884342372417,"248":-0.03145765885710716,"249":-0.04042011871933937,"250":-0.3675483167171478,"251":-0.26815012097358704,"252":0.0009284348925575614,"253":-0.07227525115013123,"254":-0.3232567608356476,"255":-0.33808860182762146,"256":-0.03477161005139351,"257":0.035561636090278625,"258":0.03045504353940487,"259":0.0069158561527729034,"260":0.04688400402665138,"261":-0.2512132227420807,"262":-0.31746432185173035,"263":-0.2619217038154602,"264":0.3239082396030426,"265":0.01624509133398533,"266":-0.4821926951408386,"267":-0.278257817029953,"268":0.04350071772933006,"269":-0.026410743594169617,"270":0.29962608218193054,"271":-0.2746705710887909,"272":0.03009936586022377,"273":-0.1536668837070465,"274":-0.6077264547348022,"275":0.3122435212135315,"276":-0.42309311032295227,"277":0.04946023225784302,"278":-0.26349112391471863,"279":-0.06980728358030319,"280":0.02815740555524826,"281":-0.2512345016002655,"282":0.011107907630503178,"283":0.40343520045280457,"284":0.012269983068108559,"285":-0.30810287594795227,"286":0.3753688931465149,"287":0.06918001174926758,"288":0.028013456612825394,"289":0.07752615213394165,"290":0.0587189681828022,"291":0.2738322913646698,"292":0.32484865188598633,"293":-0.005336577072739601,"294":0.28633826971054077,"295":0.09324637800455093,"296":-0.049921032041311264,"297":-0.045294661074876785,"298":-0.1292247474193573,"299":0.29804015159606934,"300":0.2896954119205475,"301":-0.2518810033798218,"302":0.02807651087641716,"303":0.13485555350780487,"304":0.420362651348114,"305":0.07651401311159134,"306":-0.04218456149101257,"307":0.07383595407009125,"308":-0.03770033270120621,"309":0.2281247228384018,"310":0.5919662117958069,"311":-0.10140329599380493,"312":-0.2915216386318207,"313":0.07660958170890808,"314":-0.18524503707885742,"315":0.3392401337623596,"316":-0.09209926426410675,"317":-0.052223753184080124,"318":-0.01118960976600647,"319":0.06531515717506409,"320":-0.36745283007621765,"321":-0.011881091631948948,"322":-0.38608941435813904,"323":-0.6658320426940918,"324":0.06703997403383255,"325":0.001145342132076621,"326":0.6345851421356201,"327":-0.361471027135849,"328":0.04215799644589424,"329":-0.27134454250335693,"330":-0.8264567255973816,"331":0.7844415903091431,"332":0.027709215879440308,"333":0.35827335715293884,"334":0.6096118092536926,"335":-0.7758212089538574,"336":-0.9979256987571716,"337":0.01416840124875307,"338":-0.37293317914009094,"339":0.01728329434990883,"340":-0.25038135051727295,"341":-0.013500812463462353,"342":0.07836458832025528,"343":-0.3672179579734802,"344":-0.32411906123161316,"345":0.07560574263334274,"346":0.0175901148468256,"347":-0.0262998528778553,"348":-0.011898461729288101,"349":0.07574847340583801,"350":-0.3070446848869324,"351":-0.08082709461450577,"352":-0.06402605026960373,"353":-0.03707865998148918,"354":-0.0538318008184433,"355":-0.044692207127809525,"356":-0.29277345538139343,"357":-0.01052669808268547,"358":0.044985685497522354,"359":-0.018277885392308235,"360":0.22960956394672394,"361":0.04050743207335472,"362":-0.2390773743391037,"363":1.609960675239563,"364":0.22672134637832642,"365":-0.033702656626701355,"366":0.3484419882297516,"367":-0.37763264775276184,"368":0.05181447044014931,"369":-0.26152002811431885,"370":-0.6610320806503296,"371":0.3155749440193176,"372":-0.012038163840770721,"373":0.00074239750392735,"374":0.19823448359966278,"375":0.28702816367149353,"376":-0.4239271581172943,"377":0.004727689549326897,"378":-0.24515827000141144,"379":0.024370137602090836,"380":-0.14077933132648468,"381":0.04866234213113785,"382":-0.32894399762153625,"383":0.3177076578140259,"384":-0.38151735067367554,"385":-0.16977429389953613,"386":-0.2775041460990906,"387":0.00927143543958664,"388":-0.01690351963043213,"389":-0.041439179331064224,"390":-0.3753852844238281,"391":-0.3005014657974243,"392":0.06263639777898788,"393":0.014827071689069271,"394":-0.33206114172935486,"395":-0.22736719250679016,"396":-0.24267888069152832,"397":-0.03331168368458748,"398":-0.31166645884513855,"399":0.21403934061527252}},"bias":{"rows":20,"columns":1,"weights":{"0":-0.04964799806475639,"1":-0.3133891820907593,"2":0.2888745665550232,"3":-0.22408021986484528,"4":-0.6263003945350647,"5":0,"6":0.9406460523605347,"7":0.5495801568031311,"8":0,"9":0,"10":-0.6268913745880127,"11":0.7430498600006104,"12":-0.3135818839073181,"13":-0.29978129267692566,"14":0.18366475403308868,"15":-0.31425246596336365,"16":-0.1324123591184616,"17":0,"18":0.2531619966030121,"19":0.19159044325351715}}}],"outputConnector":{"rows":10,"columns":20,"weights":{"0":0.3326932489871979,"1":0.06293134391307831,"2":0.21066169440746307,"3":-0.8398898839950562,"4":0.7135209441184998,"5":0.024422509595751762,"6":-0.07828905433416367,"7":0.24543648958206177,"8":0.041180748492479324,"9":0.03778378665447235,"10":0.5535136461257935,"11":-0.03642174229025841,"12":-0.009129940532147884,"13":0.02026422880589962,"14":-0.054633721709251404,"15":0.5288494825363159,"16":0.08021697402000427,"17":0.32792118191719055,"18":0.4331125319004059,"19":0.24174919724464417,"20":-1.6184203624725342,"21":-0.032055824995040894,"22":-0.07678534835577011,"23":0.005392696242779493,"24":-4.009366512298584,"25":-0.06962910294532776,"26":0.9410836696624756,"27":-0.12520550191402435,"28":0.03884482383728027,"29":-0.24578845500946045,"30":-0.860469400882721,"31":0.8296670913696289,"32":0.012765550054609776,"33":0.13517576456069946,"34":-0.5074638724327087,"35":-1.3579843044281006,"36":-3.553164005279541,"37":-0.05421196669340134,"38":-0.5404144525527954,"39":0.06459946930408478,"40":0.10576330125331879,"41":-0.06513005495071411,"42":0.1319243162870407,"43":-0.6293703317642212,"44":0.47968217730522156,"45":-0.0016312235966324806,"46":-0.22914807498455048,"47":0.35539883375167847,"48":0.007624747231602669,"49":0.2124551385641098,"50":0.9346944689750671,"51":0.2898591458797455,"52":0.05911915749311447,"53":0.6057430505752563,"54":0.4413652718067169,"55":0.49504414200782776,"56":1.9708744287490845,"57":-0.00885699037462473,"58":-0.9854132533073425,"59":-0.4483237564563751,"60":0.2505624294281006,"61":-0.06917893141508102,"62":0.1381148248910904,"63":-0.7834382057189941,"64":0.14812158048152924,"65":-0.18949463963508606,"66":0.5087341070175171,"67":0.20561325550079346,"68":-0.04359907656908035,"69":0.30860522389411926,"70":0.40425539016723633,"71":0.8087590336799622,"72":-0.1591610610485077,"73":0.3946308195590973,"74":0.48298484086990356,"75":1.011781096458435,"76":-3.3880531787872314,"77":-0.0009703976102173328,"78":-0.4264976978302002,"79":-0.3866986632347107,"80":0.27960729598999023,"81":0.36097684502601624,"82":0.1801363080739975,"83":0.13980114459991455,"84":-0.2551020383834839,"85":0.02355150692164898,"86":0.3952789604663849,"87":0.2401931881904602,"88":0.0025749916676431894,"89":0.346004456281662,"90":0.6055772304534912,"91":0.3251407742500305,"92":0.07199251651763916,"93":0.10309631377458572,"94":0.442850261926651,"95":0.6765192747116089,"96":0.3242604732513428,"97":0.07822772115468979,"98":0.10038379579782486,"99":-0.6219545602798462,"100":0.37595975399017334,"101":0.34394145011901855,"102":0.16002503037452698,"103":-0.7800943851470947,"104":0.5107612013816833,"105":0.05204164609313011,"106":0.12178042531013489,"107":0.33945003151893616,"108":0.031955841928720474,"109":0.2489716112613678,"110":-0.01090445276349783,"111":-0.06063687428832054,"112":0.07297016680240631,"113":0.03015088103711605,"114":0.19050364196300507,"115":0.563421368598938,"116":0.60174560546875,"117":-0.023242611438035965,"118":0.298234760761261,"119":-0.029860278591513634,"120":0.4048835039138794,"121":0.17724083364009857,"122":0.21924111247062683,"123":0.5364465117454529,"124":-0.4168213903903961,"125":0.18497781455516815,"126":0.01295557152479887,"127":0.2501552999019623,"128":0.033507853746414185,"129":0.22936823964118958,"130":0.019903410226106644,"131":-0.05736332759261131,"132":-0.04156561568379402,"133":0.020175831392407417,"134":-0.05084971711039543,"135":-0.03251072019338608,"136":0.46396538615226746,"137":0.012637903913855553,"138":0.4108662009239197,"139":-0.6997608542442322,"140":0.18307285010814667,"141":-0.017208974808454514,"142":0.15413720905780792,"143":-0.08911129087209702,"144":-0.8201279640197754,"145":-0.4189155399799347,"146":-0.22148403525352478,"147":0.34705448150634766,"148":0.05234044790267944,"149":0.36791422963142395,"150":0.37132275104522705,"151":1.0672712326049805,"152":0.1488850861787796,"153":0.3874168395996094,"154":1.061005711555481,"155":0.5031349658966064,"156":0.10206049680709839,"157":-0.2531827390193939,"158":0.14522212743759155,"159":-0.2094251811504364,"160":-0.3475598096847534,"161":0.021915512159466743,"162":0.1854696124792099,"163":-2.2884387969970703,"164":0.7510920166969299,"165":-0.07364410907030106,"166":0.3398594558238983,"167":0.2640087306499481,"168":-0.027592699974775314,"169":0.22404247522354126,"170":0.7387571334838867,"171":0.2501204013824463,"172":0.041125018149614334,"173":-0.05010353773832321,"174":0.2158741056919098,"175":0.5443180799484253,"176":0.5978950262069702,"177":0.04073543846607208,"178":0.22079245746135712,"179":-0.033397383987903595,"180":-2.7730777263641357,"181":-0.021724313497543335,"182":-0.27696293592453003,"183":0.5013425350189209,"184":1.8489930629730225,"185":0.0684482753276825,"186":0.2661397457122803,"187":-0.2535299062728882,"188":-0.0012602657079696655,"189":-0.27882814407348633,"190":0.9214540123939514,"191":0.505627453327179,"192":-0.10903055965900421,"193":-0.28016579151153564,"194":0.30298539996147156,"195":-0.9306263327598572,"196":-1.4637295007705688,"197":-0.03597047179937363,"198":-1.2702597379684448,"199":-0.6939186453819275}},"output":{"rows":10,"columns":1,"weights":{"0":-1.4467086791992188,"1":5.128561973571777,"2":-2.3286776542663574,"3":-6.6532673835754395,"4":-4.534650802612305,"5":-2.4763376712799072,"6":-1.686408519744873,"7":-5.623466968536377,"8":-3.9265949726104736,"9":-5.125676155090332}}}